digraph Tree {
node [shape=box] ;
rankdir=LR ;
0 [label="new_user <= 0.5\ngini = 0.375\nsamples = 100.0%\nvalue = [0.75, 0.25]"] ;
1 [label="age <= 31.5\ngini = 0.492\nsamples = 31.5%\nvalue = [0.564, 0.436]"] ;
0 -> 1 [labeldistance=2.5, labelangle=-45, headlabel="True"] ;
2 [label="gini = 0.499\nsamples = 18.3%\nvalue = [0.483, 0.517]"] ;
1 -> 2 ;
3 [label="gini = 0.402\nsamples = 13.2%\nvalue = [0.722, 0.278]"] ;
1 -> 3 ;
4 [label="age <= 23.5\ngini = 0.218\nsamples = 68.5%\nvalue = [0.876, 0.124]"] ;
0 -> 4 [labeldistance=2.5, labelangle=45, headlabel="False"] ;
5 [label="gini = 0.332\nsamples = 15.1%\nvalue = [0.789, 0.211]"] ;
4 -> 5 ;
6 [label="gini = 0.175\nsamples = 53.4%\nvalue = [0.903, 0.097]"] ;
4 -> 6 ;
}
